<?xml version="1.0"?>
<opencv_storage>
<cascade>
  <stageType>BOOST</stageType>
  <featureType>HAAR</featureType>
  <height>24</height>
  <width>24</width>
  <stageParams>
    <boostType>GAB</boostType>
    <minHitRate>9.2500001192092896e-01</minHitRate>
    <maxFalseAlarm>1.2500000000000000e-01</maxFalseAlarm>
    <weightTrimRate>9.4999999999999996e-01</weightTrimRate>
    <maxDepth>1</maxDepth>
    <maxWeakCount>100</maxWeakCount></stageParams>
  <featureParams>
    <maxCatCount>0</maxCatCount>
    <featSize>1</featSize>
    <mode>BASIC</mode></featureParams>
  <stageNum>7</stageNum>
  <stages>
    <!-- stage 0 -->
    <_>
      <maxWeakCount>3</maxWeakCount>
      <stageThreshold>-4.9069628119468689e-01</stageThreshold>
      <weakClassifiers>
        <_>
          <internalNodes>
            0 -1 15 2.8858395293354988e-02</internalNodes>
          <leafValues>
            -7.2093021869659424e-01 9.2592591047286987e-01</leafValues></_>
        <_>
          <internalNodes>
            0 -1 4 -1.5398066490888596e-02</internalNodes>
          <leafValues>
            7.1206593513488770e-01 -8.2552820444107056e-01</leafValues></_>
        <_>
          <internalNodes>
            0 -1 21 4.5556016266345978e-03</internalNodes>
          <leafValues>
            -5.9109401702880859e-01 7.7559864521026611e-01</leafValues></_></weakClassifiers></_>
    <!-- stage 1 -->
    <_>
      <maxWeakCount>5</maxWeakCount>
      <stageThreshold>1.8216437101364136e-01</stageThreshold>
      <weakClassifiers>
        <_>
          <internalNodes>
            0 -1 2 -5.7695931196212769e-01</internalNodes>
          <leafValues>
            -1. 1.6923077404499054e-01</leafValues></_>
        <_>
          <internalNodes>
            0 -1 10 -1.4999818056821823e-02</internalNodes>
          <leafValues>
            5.4599624872207642e-01 -7.2404092550277710e-01</leafValues></_>
        <_>
          <internalNodes>
            0 -1 12 1.4734501019120216e-02</internalNodes>
          <leafValues>
            -4.6593397855758667e-01 8.3753317594528198e-01</leafValues></_>
        <_>
          <internalNodes>
            0 -1 22 -1.5941812307573855e-04</internalNodes>
          <leafValues>
            5.4127246141433716e-01 -6.0897147655487061e-01</leafValues></_>
        <_>
          <internalNodes>
            0 -1 6 -1.9431873806752264e-04</internalNodes>
          <leafValues>
            6.6163605451583862e-01 -5.9456157684326172e-01</leafValues></_></weakClassifiers></_>
    <!-- stage 2 -->
    <_>
      <maxWeakCount>2</maxWeakCount>
      <stageThreshold>4.3035861849784851e-01</stageThreshold>
      <weakClassifiers>
        <_>
          <internalNodes>
            0 -1 0 -2.9505166411399841e-01</internalNodes>
          <leafValues>
            -1. 1.3432836532592773e-01</leafValues></_>
        <_>
          <internalNodes>
            0 -1 1 -7.8126434236764908e-03</internalNodes>
          <leafValues>
            2.9603025317192078e-01 -9.4763839244842529e-01</leafValues></_></weakClassifiers></_>
    <!-- stage 3 -->
    <_>
      <maxWeakCount>3</maxWeakCount>
      <stageThreshold>3.8536325097084045e-01</stageThreshold>
      <weakClassifiers>
        <_>
          <internalNodes>
            0 -1 17 -1.6557307913899422e-02</internalNodes>
          <leafValues>
            5.1219511032104492e-01 -8.0555558204650879e-01</leafValues></_>
        <_>
          <internalNodes>
            0 -1 7 -2.1182429045438766e-03</internalNodes>
          <leafValues>
            -9.2259824275970459e-01 3.4837973117828369e-01</leafValues></_>
        <_>
          <internalNodes>
            0 -1 16 -3.3898134715855122e-03</internalNodes>
          <leafValues>
            8.9318454265594482e-01 -4.7521159052848816e-01</leafValues></_></weakClassifiers></_>
    <!-- stage 4 -->
    <_>
      <maxWeakCount>5</maxWeakCount>
      <stageThreshold>1.6606184840202332e-01</stageThreshold>
      <weakClassifiers>
        <_>
          <internalNodes>
            0 -1 20 1.5736300498247147e-02</internalNodes>
          <leafValues>
            -7.2151899337768555e-01 5.8823531866073608e-01</leafValues></_>
        <_>
          <internalNodes>
            0 -1 24 -6.9523631827905774e-04</internalNodes>
          <leafValues>
            -8.5739350318908691e-01 3.5836356878280640e-01</leafValues></_>
        <_>
          <internalNodes>
            0 -1 19 -9.8037775605916977e-03</internalNodes>
          <leafValues>
            8.6019134521484375e-01 -4.7269839048385620e-01</leafValues></_>
        <_>
          <internalNodes>
            0 -1 5 -1.3309874339029193e-03</internalNodes>
          <leafValues>
            -9.5416152477264404e-01 4.2813614010810852e-01</leafValues></_>
        <_>
          <internalNodes>
            0 -1 3 -1.4311866834759712e-02</internalNodes>
          <leafValues>
            5.7377952337265015e-01 -6.5809321403503418e-01</leafValues></_></weakClassifiers></_>
    <!-- stage 5 -->
    <_>
      <maxWeakCount>4</maxWeakCount>
      <stageThreshold>4.2513053864240646e-02</stageThreshold>
      <weakClassifiers>
        <_>
          <internalNodes>
            0 -1 18 7.6406472362577915e-03</internalNodes>
          <leafValues>
            -5.9574466943740845e-01 1.</leafValues></_>
        <_>
          <internalNodes>
            0 -1 23 1.2210156768560410e-02</internalNodes>
          <leafValues>
            5.7590562105178833e-01 -8.4736394882202148e-01</leafValues></_>
        <_>
          <internalNodes>
            0 -1 11 3.9668001234531403e-02</internalNodes>
          <leafValues>
            -5.9184539318084717e-01 8.0681353807449341e-01</leafValues></_>
        <_>
          <internalNodes>
            0 -1 8 -4.1848731040954590e-01</internalNodes>
          <leafValues>
            6.7663699388504028e-01 -7.4446141719818115e-01</leafValues></_></weakClassifiers></_>
    <!-- stage 6 -->
    <_>
      <maxWeakCount>3</maxWeakCount>
      <stageThreshold>2.5702002644538879e-01</stageThreshold>
      <weakClassifiers>
        <_>
          <internalNodes>
            0 -1 9 1.8363427370786667e-02</internalNodes>
          <leafValues>
            -6.3636362552642822e-01 7.5999999046325684e-01</leafValues></_>
        <_>
          <internalNodes>
            0 -1 13 -1.5905193286016583e-03</internalNodes>
          <leafValues>
            5.1203185319900513e-01 -8.4035181999206543e-01</leafValues></_>
        <_>
          <internalNodes>
            0 -1 14 3.3195145428180695e-02</internalNodes>
          <leafValues>
            3.8135176897048950e-01 -9.4915252923965454e-01</leafValues></_></weakClassifiers></_></stages>
  <features>
    <_>
      <rects>
        <_>
          0 0 1 12 -1.</_>
        <_>
          0 4 1 4 2.</_></rects>
      <tilted>0</tilted></_>
    <_>
      <rects>
        <_>
          0 0 6 19 -1.</_>
        <_>
          3 0 3 19 2.</_></rects>
      <tilted>0</tilted></_>
    <_>
      <rects>
        <_>
          0 0 24 1 -1.</_>
        <_>
          8 0 8 1 2.</_></rects>
      <tilted>0</tilted></_>
    <_>
      <rects>
        <_>
          0 0 18 6 -1.</_>
        <_>
          0 3 18 3 2.</_></rects>
      <tilted>0</tilted></_>
    <_>
      <rects>
        <_>
          0 10 8 4 -1.</_>
        <_>
          4 10 4 4 2.</_></rects>
      <tilted>0</tilted></_>
    <_>
      <rects>
        <_>
          0 12 1 8 -1.</_>
        <_>
          0 16 1 4 2.</_></rects>
      <tilted>0</tilted></_>
    <_>
      <rects>
        <_>
          1 17 4 4 -1.</_>
        <_>
          1 17 2 2 2.</_>
        <_>
          3 19 2 2 2.</_></rects>
      <tilted>0</tilted></_>
    <_>
      <rects>
        <_>
          1 22 4 2 -1.</_>
        <_>
          3 22 2 2 2.</_></rects>
      <tilted>0</tilted></_>
    <_>
      <rects>
        <_>
          2 6 15 2 -1.</_>
        <_>
          7 6 5 2 2.</_></rects>
      <tilted>0</tilted></_>
    <_>
      <rects>
        <_>
          3 6 6 12 -1.</_>
        <_>
          3 6 3 6 2.</_>
        <_>
          6 12 3 6 2.</_></rects>
      <tilted>0</tilted></_>
    <_>
      <rects>
        <_>
          5 0 11 8 -1.</_>
        <_>
          5 4 11 4 2.</_></rects>
      <tilted>0</tilted></_>
    <_>
      <rects>
        <_>
          5 2 8 14 -1.</_>
        <_>
          5 2 4 7 2.</_>
        <_>
          9 9 4 7 2.</_></rects>
      <tilted>0</tilted></_>
    <_>
      <rects>
        <_>
          5 4 6 8 -1.</_>
        <_>
          5 4 3 4 2.</_>
        <_>
          8 8 3 4 2.</_></rects>
      <tilted>0</tilted></_>
    <_>
      <rects>
        <_>
          7 5 6 19 -1.</_>
        <_>
          10 5 3 19 2.</_></rects>
      <tilted>0</tilted></_>
    <_>
      <rects>
        <_>
          8 8 4 16 -1.</_>
        <_>
          8 16 4 8 2.</_></rects>
      <tilted>0</tilted></_>
    <_>
      <rects>
        <_>
          8 18 9 6 -1.</_>
        <_>
          8 21 9 3 2.</_></rects>
      <tilted>0</tilted></_>
    <_>
      <rects>
        <_>
          8 19 14 2 -1.</_>
        <_>
          8 19 7 1 2.</_>
        <_>
          15 20 7 1 2.</_></rects>
      <tilted>0</tilted></_>
    <_>
      <rects>
        <_>
          9 12 10 5 -1.</_>
        <_>
          14 12 5 5 2.</_></rects>
      <tilted>0</tilted></_>
    <_>
      <rects>
        <_>
          12 8 8 3 -1.</_>
        <_>
          16 8 4 3 2.</_></rects>
      <tilted>0</tilted></_>
    <_>
      <rects>
        <_>
          13 7 4 8 -1.</_>
        <_>
          13 7 2 4 2.</_>
        <_>
          15 11 2 4 2.</_></rects>
      <tilted>0</tilted></_>
    <_>
      <rects>
        <_>
          13 18 5 6 -1.</_>
        <_>
          13 21 5 3 2.</_></rects>
      <tilted>0</tilted></_>
    <_>
      <rects>
        <_>
          15 9 2 14 -1.</_>
        <_>
          15 16 2 7 2.</_></rects>
      <tilted>0</tilted></_>
    <_>
      <rects>
        <_>
          18 5 2 5 -1.</_>
        <_>
          19 5 1 5 2.</_></rects>
      <tilted>0</tilted></_>
    <_>
      <rects>
        <_>
          20 12 4 10 -1.</_>
        <_>
          20 17 4 5 2.</_></rects>
      <tilted>0</tilted></_>
    <_>
      <rects>
        <_>
          21 12 2 10 -1.</_>
        <_>
          21 12 1 5 2.</_>
        <_>
          22 17 1 5 2.</_></rects>
      <tilted>0</tilted></_></features></cascade>
</opencv_storage>
