<?xml version="1.0"?>
<opencv_storage>
<cascade>
  <stageType>BOOST</stageType>
  <featureType>HAAR</featureType>
  <height>24</height>
  <width>24</width>
  <stageParams>
    <boostType>GAB</boostType>
    <minHitRate>9.9500000476837158e-01</minHitRate>
    <maxFalseAlarm>9.9999997764825821e-03</maxFalseAlarm>
    <weightTrimRate>9.4999999999999996e-01</weightTrimRate>
    <maxDepth>1</maxDepth>
    <maxWeakCount>100</maxWeakCount></stageParams>
  <featureParams>
    <maxCatCount>0</maxCatCount>
    <featSize>1</featSize>
    <mode>BASIC</mode></featureParams>
  <stageNum>3</stageNum>
  <stages>
    <!-- stage 0 -->
    <_>
      <maxWeakCount>5</maxWeakCount>
      <stageThreshold>-3.8899773359298706e-01</stageThreshold>
      <weakClassifiers>
        <_>
          <internalNodes>
            0 -1 9 2.3637846112251282e-02</internalNodes>
          <leafValues>
            -7.1428573131561279e-01 8.8235294818878174e-01</leafValues></_>
        <_>
          <internalNodes>
            0 -1 1 -1.5398066490888596e-02</internalNodes>
          <leafValues>
            6.9711822271347046e-01 -7.9711037874221802e-01</leafValues></_>
        <_>
          <internalNodes>
            0 -1 7 1.5862226486206055e-02</internalNodes>
          <leafValues>
            -5.4927200078964233e-01 8.4869801998138428e-01</leafValues></_>
        <_>
          <internalNodes>
            0 -1 12 1.9816947169601917e-03</internalNodes>
          <leafValues>
            -7.2858184576034546e-01 6.6336280107498169e-01</leafValues></_>
        <_>
          <internalNodes>
            0 -1 11 7.4827624484896660e-03</internalNodes>
          <leafValues>
            -5.8833110332489014e-01 8.1975603103637695e-01</leafValues></_></weakClassifiers></_>
    <!-- stage 1 -->
    <_>
      <maxWeakCount>6</maxWeakCount>
      <stageThreshold>4.5121723413467407e-01</stageThreshold>
      <weakClassifiers>
        <_>
          <internalNodes>
            0 -1 14 -1.3787433505058289e-01</internalNodes>
          <leafValues>
            -1. 3.6363637447357178e-01</leafValues></_>
        <_>
          <internalNodes>
            0 -1 5 -1.3653209432959557e-02</internalNodes>
          <leafValues>
            6.1877083778381348e-01 -8.0751353502273560e-01</leafValues></_>
        <_>
          <internalNodes>
            0 -1 6 1.4734501019120216e-02</internalNodes>
          <leafValues>
            -4.6720007061958313e-01 9.3075287342071533e-01</leafValues></_>
        <_>
          <internalNodes>
            0 -1 14 -1.3787433505058289e-01</internalNodes>
          <leafValues>
            -1. 4.1716885566711426e-01</leafValues></_>
        <_>
          <internalNodes>
            0 -1 3 -4.7345571219921112e-03</internalNodes>
          <leafValues>
            6.2892538309097290e-01 -9.1847121715545654e-01</leafValues></_>
        <_>
          <internalNodes>
            0 -1 15 -8.8390348537359387e-05</internalNodes>
          <leafValues>
            4.3731248378753662e-01 -8.2047367095947266e-01</leafValues></_></weakClassifiers></_>
    <!-- stage 2 -->
    <_>
      <maxWeakCount>8</maxWeakCount>
      <stageThreshold>2.8364181518554688e-01</stageThreshold>
      <weakClassifiers>
        <_>
          <internalNodes>
            0 -1 17 6.6155614331364632e-03</internalNodes>
          <leafValues>
            2.9411765933036804e-01 -9.6491229534149170e-01</leafValues></_>
        <_>
          <internalNodes>
            0 -1 13 -1.4975577592849731e-02</internalNodes>
          <leafValues>
            6.8775188922882080e-01 -5.9137308597564697e-01</leafValues></_>
        <_>
          <internalNodes>
            0 -1 0 -1.3932419940829277e-02</internalNodes>
          <leafValues>
            -1. 3.8355970382690430e-01</leafValues></_>
        <_>
          <internalNodes>
            0 -1 10 -1.5580339357256889e-02</internalNodes>
          <leafValues>
            5.2926468849182129e-01 -6.5586340427398682e-01</leafValues></_>
        <_>
          <internalNodes>
            0 -1 16 2.7412907220423222e-03</internalNodes>
          <leafValues>
            5.8151924610137939e-01 -6.5346616506576538e-01</leafValues></_>
        <_>
          <internalNodes>
            0 -1 4 9.9079322535544634e-04</internalNodes>
          <leafValues>
            3.8839566707611084e-01 -9.8280316591262817e-01</leafValues></_>
        <_>
          <internalNodes>
            0 -1 8 -8.5247308015823364e-04</internalNodes>
          <leafValues>
            5.9365880489349365e-01 -6.5562838315963745e-01</leafValues></_>
        <_>
          <internalNodes>
            0 -1 2 5.9168465435504913e-02</internalNodes>
          <leafValues>
            5.3891438245773315e-01 -7.7370142936706543e-01</leafValues></_></weakClassifiers></_></stages>
  <features>
    <_>
      <rects>
        <_>
          0 0 2 16 -1.</_>
        <_>
          0 8 2 8 2.</_></rects>
      <tilted>0</tilted></_>
    <_>
      <rects>
        <_>
          0 10 8 4 -1.</_>
        <_>
          4 10 4 4 2.</_></rects>
      <tilted>0</tilted></_>
    <_>
      <rects>
        <_>
          0 10 10 14 -1.</_>
        <_>
          0 17 10 7 2.</_></rects>
      <tilted>0</tilted></_>
    <_>
      <rects>
        <_>
          1 1 4 23 -1.</_>
        <_>
          3 1 2 23 2.</_></rects>
      <tilted>0</tilted></_>
    <_>
      <rects>
        <_>
          2 23 14 1 -1.</_>
        <_>
          9 23 7 1 2.</_></rects>
      <tilted>0</tilted></_>
    <_>
      <rects>
        <_>
          3 0 14 8 -1.</_>
        <_>
          3 4 14 4 2.</_></rects>
      <tilted>0</tilted></_>
    <_>
      <rects>
        <_>
          5 4 6 8 -1.</_>
        <_>
          5 4 3 4 2.</_>
        <_>
          8 8 3 4 2.</_></rects>
      <tilted>0</tilted></_>
    <_>
      <rects>
        <_>
          6 14 4 10 -1.</_>
        <_>
          6 19 4 5 2.</_></rects>
      <tilted>0</tilted></_>
    <_>
      <rects>
        <_>
          7 0 6 6 -1.</_>
        <_>
          7 0 3 3 2.</_>
        <_>
          10 3 3 3 2.</_></rects>
      <tilted>0</tilted></_>
    <_>
      <rects>
        <_>
          8 18 9 6 -1.</_>
        <_>
          8 21 9 3 2.</_></rects>
      <tilted>0</tilted></_>
    <_>
      <rects>
        <_>
          10 0 8 17 -1.</_>
        <_>
          14 0 4 17 2.</_></rects>
      <tilted>0</tilted></_>
    <_>
      <rects>
        <_>
          11 11 8 8 -1.</_>
        <_>
          11 11 4 4 2.</_>
        <_>
          15 15 4 4 2.</_></rects>
      <tilted>0</tilted></_>
    <_>
      <rects>
        <_>
          12 2 1 22 -1.</_>
        <_>
          12 13 1 11 2.</_></rects>
      <tilted>0</tilted></_>
    <_>
      <rects>
        <_>
          12 16 8 5 -1.</_>
        <_>
          16 16 4 5 2.</_></rects>
      <tilted>0</tilted></_>
    <_>
      <rects>
        <_>
          15 20 6 1 -1.</_>
        <_>
          17 20 2 1 2.</_></rects>
      <tilted>0</tilted></_>
    <_>
      <rects>
        <_>
          17 4 6 1 -1.</_>
        <_>
          20 4 3 1 2.</_></rects>
      <tilted>0</tilted></_>
    <_>
      <rects>
        <_>
          17 13 2 8 -1.</_>
        <_>
          17 17 2 4 2.</_></rects>
      <tilted>0</tilted></_>
    <_>
      <rects>
        <_>
          22 16 2 8 -1.</_>
        <_>
          22 20 2 4 2.</_></rects>
      <tilted>0</tilted></_></features></cascade>
</opencv_storage>
