<?xml version="1.0"?>
<opencv_storage>
<cascade>
  <stageType>BOOST</stageType>
  <featureType>HAAR</featureType>
  <height>24</height>
  <width>24</width>
  <stageParams>
    <boostType>GAB</boostType>
    <minHitRate>8.9999997615814209e-01</minHitRate>
    <maxFalseAlarm>1.7499999701976776e-01</maxFalseAlarm>
    <weightTrimRate>9.4999999999999996e-01</weightTrimRate>
    <maxDepth>1</maxDepth>
    <maxWeakCount>100</maxWeakCount></stageParams>
  <featureParams>
    <maxCatCount>0</maxCatCount>
    <featSize>1</featSize>
    <mode>BASIC</mode></featureParams>
  <stageNum>7</stageNum>
  <stages>
    <!-- stage 0 -->
    <_>
      <maxWeakCount>2</maxWeakCount>
      <stageThreshold>-6.0399942100048065e-02</stageThreshold>
      <weakClassifiers>
        <_>
          <internalNodes>
            0 -1 8 2.8858395293354988e-02</internalNodes>
          <leafValues>
            -7.3626375198364258e-01 9.2592591047286987e-01</leafValues></_>
        <_>
          <internalNodes>
            0 -1 1 -1.5398066490888596e-02</internalNodes>
          <leafValues>
            6.7586380243301392e-01 -8.3006769418716431e-01</leafValues></_></weakClassifiers></_>
    <!-- stage 1 -->
    <_>
      <maxWeakCount>3</maxWeakCount>
      <stageThreshold>-6.1819082498550415e-01</stageThreshold>
      <weakClassifiers>
        <_>
          <internalNodes>
            0 -1 10 9.0084113180637360e-03</internalNodes>
          <leafValues>
            -7.3333334922790527e-01 8.5714286565780640e-01</leafValues></_>
        <_>
          <internalNodes>
            0 -1 3 -2.5635802745819092e-01</internalNodes>
          <leafValues>
            -9.6989393234252930e-01 4.2366349697113037e-01</leafValues></_>
        <_>
          <internalNodes>
            0 -1 13 -7.2658704593777657e-03</internalNodes>
          <leafValues>
            8.1343472003936768e-01 -5.0543975830078125e-01</leafValues></_></weakClassifiers></_>
    <!-- stage 2 -->
    <_>
      <maxWeakCount>1</maxWeakCount>
      <stageThreshold>5.8333331346511841e-01</stageThreshold>
      <weakClassifiers>
        <_>
          <internalNodes>
            0 -1 2 -1.1467044353485107e+00</internalNodes>
          <leafValues>
            -1. 5.8333331346511841e-01</leafValues></_></weakClassifiers></_>
    <!-- stage 3 -->
    <_>
      <maxWeakCount>3</maxWeakCount>
      <stageThreshold>2.7569758892059326e-01</stageThreshold>
      <weakClassifiers>
        <_>
          <internalNodes>
            0 -1 4 -1.4610755257308483e-02</internalNodes>
          <leafValues>
            3.6170211434364319e-01 -8.3098590373992920e-01</leafValues></_>
        <_>
          <internalNodes>
            0 -1 6 -1.4345191419124603e-02</internalNodes>
          <leafValues>
            6.6298615932464600e-01 -6.0162192583084106e-01</leafValues></_>
        <_>
          <internalNodes>
            0 -1 17 -1.6237274976447225e-03</internalNodes>
          <leafValues>
            5.1561743021011353e-01 -7.3059672117233276e-01</leafValues></_></weakClassifiers></_>
    <!-- stage 4 -->
    <_>
      <maxWeakCount>3</maxWeakCount>
      <stageThreshold>6.2375862151384354e-02</stageThreshold>
      <weakClassifiers>
        <_>
          <internalNodes>
            0 -1 16 4.6347565948963165e-02</internalNodes>
          <leafValues>
            -6.4583331346511841e-01 9.0909093618392944e-01</leafValues></_>
        <_>
          <internalNodes>
            0 -1 0 2.2858153097331524e-03</internalNodes>
          <leafValues>
            4.0463906526565552e-01 -9.7030848264694214e-01</leafValues></_>
        <_>
          <internalNodes>
            0 -1 7 2.6331592816859484e-03</internalNodes>
          <leafValues>
            3.0357012152671814e-01 -1.</leafValues></_></weakClassifiers></_>
    <!-- stage 5 -->
    <_>
      <maxWeakCount>4</maxWeakCount>
      <stageThreshold>-1.9198210537433624e-01</stageThreshold>
      <weakClassifiers>
        <_>
          <internalNodes>
            0 -1 9 -1.2629489414393902e-02</internalNodes>
          <leafValues>
            7.0370370149612427e-01 -6.7032968997955322e-01</leafValues></_>
        <_>
          <internalNodes>
            0 -1 12 6.0504057910293341e-04</internalNodes>
          <leafValues>
            4.5249730348587036e-01 -7.2271621227264404e-01</leafValues></_>
        <_>
          <internalNodes>
            0 -1 18 -1.1823242530226707e-02</internalNodes>
          <leafValues>
            9.4675111770629883e-01 -4.0818300843238831e-01</leafValues></_>
        <_>
          <internalNodes>
            0 -1 14 5.3525358438491821e-02</internalNodes>
          <leafValues>
            4.3403327465057373e-01 -9.3427622318267822e-01</leafValues></_></weakClassifiers></_>
    <!-- stage 6 -->
    <_>
      <maxWeakCount>4</maxWeakCount>
      <stageThreshold>2.1222478151321411e-01</stageThreshold>
      <weakClassifiers>
        <_>
          <internalNodes>
            0 -1 19 -1.7741001211106777e-03</internalNodes>
          <leafValues>
            -9.4029849767684937e-01 4.1176471114158630e-01</leafValues></_>
        <_>
          <internalNodes>
            0 -1 11 1.0380230844020844e-02</internalNodes>
          <leafValues>
            -6.3596612215042114e-01 9.5837122201919556e-01</leafValues></_>
        <_>
          <internalNodes>
            0 -1 15 1.9704962149262428e-02</internalNodes>
          <leafValues>
            -4.0530416369438171e-01 9.7456681728363037e-01</leafValues></_>
        <_>
          <internalNodes>
            0 -1 5 -2.2124864161014557e-02</internalNodes>
          <leafValues>
            9.3533986806869507e-01 -5.3814059495925903e-01</leafValues></_></weakClassifiers></_></stages>
  <features>
    <_>
      <rects>
        <_>
          0 6 1 8 -1.</_>
        <_>
          0 10 1 4 2.</_></rects>
      <tilted>0</tilted></_>
    <_>
      <rects>
        <_>
          0 10 8 4 -1.</_>
        <_>
          4 10 4 4 2.</_></rects>
      <tilted>0</tilted></_>
    <_>
      <rects>
        <_>
          0 18 24 2 -1.</_>
        <_>
          8 18 8 2 2.</_></rects>
      <tilted>0</tilted></_>
    <_>
      <rects>
        <_>
          0 20 12 1 -1.</_>
        <_>
          4 20 4 1 2.</_></rects>
      <tilted>0</tilted></_>
    <_>
      <rects>
        <_>
          1 0 17 8 -1.</_>
        <_>
          1 4 17 4 2.</_></rects>
      <tilted>0</tilted></_>
    <_>
      <rects>
        <_>
          3 3 3 18 -1.</_>
        <_>
          3 12 3 9 2.</_></rects>
      <tilted>0</tilted></_>
    <_>
      <rects>
        <_>
          5 9 6 8 -1.</_>
        <_>
          5 9 3 4 2.</_>
        <_>
          8 13 3 4 2.</_></rects>
      <tilted>0</tilted></_>
    <_>
      <rects>
        <_>
          5 10 14 4 -1.</_>
        <_>
          12 10 7 4 2.</_></rects>
      <tilted>0</tilted></_>
    <_>
      <rects>
        <_>
          8 18 9 6 -1.</_>
        <_>
          8 21 9 3 2.</_></rects>
      <tilted>0</tilted></_>
    <_>
      <rects>
        <_>
          9 15 5 6 -1.</_>
        <_>
          9 18 5 3 2.</_></rects>
      <tilted>0</tilted></_>
    <_>
      <rects>
        <_>
          10 4 2 10 -1.</_>
        <_>
          10 9 2 5 2.</_></rects>
      <tilted>0</tilted></_>
    <_>
      <rects>
        <_>
          11 11 6 8 -1.</_>
        <_>
          11 11 3 4 2.</_>
        <_>
          14 15 3 4 2.</_></rects>
      <tilted>0</tilted></_>
    <_>
      <rects>
        <_>
          11 20 3 2 -1.</_>
        <_>
          11 21 3 1 2.</_></rects>
      <tilted>0</tilted></_>
    <_>
      <rects>
        <_>
          12 9 4 8 -1.</_>
        <_>
          12 9 2 4 2.</_>
        <_>
          14 13 2 4 2.</_></rects>
      <tilted>0</tilted></_>
    <_>
      <rects>
        <_>
          12 9 10 14 -1.</_>
        <_>
          12 16 10 7 2.</_></rects>
      <tilted>0</tilted></_>
    <_>
      <rects>
        <_>
          12 12 6 12 -1.</_>
        <_>
          12 18 6 6 2.</_></rects>
      <tilted>0</tilted></_>
    <_>
      <rects>
        <_>
          12 18 9 6 -1.</_>
        <_>
          12 21 9 3 2.</_></rects>
      <tilted>0</tilted></_>
    <_>
      <rects>
        <_>
          15 17 4 7 -1.</_>
        <_>
          17 17 2 7 2.</_></rects>
      <tilted>0</tilted></_>
    <_>
      <rects>
        <_>
          16 9 4 10 -1.</_>
        <_>
          16 9 2 5 2.</_>
        <_>
          18 14 2 5 2.</_></rects>
      <tilted>0</tilted></_>
    <_>
      <rects>
        <_>
          22 12 2 12 -1.</_>
        <_>
          22 18 2 6 2.</_></rects>
      <tilted>0</tilted></_></features></cascade>
</opencv_storage>
