<?xml version="1.0"?>
<opencv_storage>
<stage0>
  <maxWeakCount>5</maxWeakCount>
  <stageThreshold>-3.8899773359298706e-01</stageThreshold>
  <weakClassifiers>
    <_>
      <internalNodes>
        0 -1 98229 2.3637846112251282e-02</internalNodes>
      <leafValues>
        -7.1428573131561279e-01 8.8235294818878174e-01</leafValues></_>
    <_>
      <internalNodes>
        0 -1 8961 -1.5398066490888596e-02</internalNodes>
      <leafValues>
        6.9711822271347046e-01 -7.9711037874221802e-01</leafValues></_>
    <_>
      <internalNodes>
        0 -1 79109 1.5862226486206055e-02</internalNodes>
      <leafValues>
        -5.4927200078964233e-01 8.4869801998138428e-01</leafValues></_>
    <_>
      <internalNodes>
        0 -1 122456 1.9816947169601917e-03</internalNodes>
      <leafValues>
        -7.2858184576034546e-01 6.6336280107498169e-01</leafValues></_>
    <_>
      <internalNodes>
        0 -1 119443 7.4827624484896660e-03</internalNodes>
      <leafValues>
        -5.8833110332489014e-01 8.1975603103637695e-01</leafValues></_></weakClassifiers></stage0>
</opencv_storage>
