<?xml version="1.0"?>
<opencv_storage>
<stage4>
  <maxWeakCount>5</maxWeakCount>
  <stageThreshold>7.3899336159229279e-02</stageThreshold>
  <weakClassifiers>
    <_>
      <internalNodes>
        0 -1 67264 -8.4594693034887314e-03</internalNodes>
      <leafValues>
        6.2962961196899414e-01 -6.2790697813034058e-01</leafValues></_>
    <_>
      <internalNodes>
        0 -1 33349 -4.5252321287989616e-03</internalNodes>
      <leafValues>
        5.5624383687973022e-01 -6.4517366886138916e-01</leafValues></_>
    <_>
      <internalNodes>
        0 -1 113509 -4.4388934038579464e-03</internalNodes>
      <leafValues>
        7.2525507211685181e-01 -5.6886297464370728e-01</leafValues></_>
    <_>
      <internalNodes>
        0 -1 128038 -6.5830927342176437e-03</internalNodes>
      <leafValues>
        -9.2937910556793213e-01 3.8163527846336365e-01</leafValues></_>
    <_>
      <internalNodes>
        0 -1 2232 1.4071486890316010e-02</internalNodes>
      <leafValues>
        3.3279019594192505e-01 -1.</leafValues></_></weakClassifiers></stage4>
</opencv_storage>
