<?xml version="1.0"?>
<opencv_storage>
<stage2>
  <maxWeakCount>8</maxWeakCount>
  <stageThreshold>2.8364181518554688e-01</stageThreshold>
  <weakClassifiers>
    <_>
      <internalNodes>
        0 -1 162021 6.6155614331364632e-03</internalNodes>
      <leafValues>
        2.9411765933036804e-01 -9.6491229534149170e-01</leafValues></_>
    <_>
      <internalNodes>
        0 -1 127380 -1.4975577592849731e-02</internalNodes>
      <leafValues>
        6.8775188922882080e-01 -5.9137308597564697e-01</leafValues></_>
    <_>
      <internalNodes>
        0 -1 116 -1.3932419940829277e-02</internalNodes>
      <leafValues>
        -1. 3.8355970382690430e-01</leafValues></_>
    <_>
      <internalNodes>
        0 -1 107104 -1.5580339357256889e-02</internalNodes>
      <leafValues>
        5.2926468849182129e-01 -6.5586340427398682e-01</leafValues></_>
    <_>
      <internalNodes>
        0 -1 151179 2.7412907220423222e-03</internalNodes>
      <leafValues>
        5.8151924610137939e-01 -6.5346616506576538e-01</leafValues></_>
    <_>
      <internalNodes>
        0 -1 37974 9.9079322535544634e-04</internalNodes>
      <leafValues>
        3.8839566707611084e-01 -9.8280316591262817e-01</leafValues></_>
    <_>
      <internalNodes>
        0 -1 80934 -8.5247308015823364e-04</internalNodes>
      <leafValues>
        5.9365880489349365e-01 -6.5562838315963745e-01</leafValues></_>
    <_>
      <internalNodes>
        0 -1 9231 5.9168465435504913e-02</internalNodes>
      <leafValues>
        5.3891438245773315e-01 -7.7370142936706543e-01</leafValues></_></weakClassifiers></stage2>
</opencv_storage>
