<?xml version="1.0"?>
<opencv_storage>
<cascade>
  <stageType>BOOST</stageType>
  <featureType>HAAR</featureType>
  <height>24</height>
  <width>24</width>
  <stageParams>
    <boostType>GAB</boostType>
    <minHitRate>9.2500001192092896e-01</minHitRate>
    <maxFalseAlarm>1.2500000000000000e-01</maxFalseAlarm>
    <weightTrimRate>9.4999999999999996e-01</weightTrimRate>
    <maxDepth>1</maxDepth>
    <maxWeakCount>100</maxWeakCount></stageParams>
  <featureParams>
    <maxCatCount>0</maxCatCount>
    <featSize>1</featSize>
    <mode>BASIC</mode></featureParams>
  <stageNum>5</stageNum>
  <stages>
    <!-- stage 0 -->
    <_>
      <maxWeakCount>3</maxWeakCount>
      <stageThreshold>4.5130762457847595e-01</stageThreshold>
      <weakClassifiers>
        <_>
          <internalNodes>
            0 -1 7 -2.8807677328586578e-02</internalNodes>
          <leafValues>
            7.2093021869659424e-01 -9.2207789421081543e-01</leafValues></_>
        <_>
          <internalNodes>
            0 -1 3 -1.0869769612327218e-03</internalNodes>
          <leafValues>
            -1. 6.2126988172531128e-01</leafValues></_>
        <_>
          <internalNodes>
            0 -1 11 2.3328084498643875e-02</internalNodes>
          <leafValues>
            -8.9089250564575195e-01 7.6732259988784790e-01</leafValues></_></weakClassifiers></_>
    <!-- stage 1 -->
    <_>
      <maxWeakCount>3</maxWeakCount>
      <stageThreshold>6.2528300285339355e-01</stageThreshold>
      <weakClassifiers>
        <_>
          <internalNodes>
            0 -1 2 -2.9012933373451233e-02</internalNodes>
          <leafValues>
            7.9487180709838867e-01 -8.7654322385787964e-01</leafValues></_>
        <_>
          <internalNodes>
            0 -1 10 -3.0254391953349113e-02</internalNodes>
          <leafValues>
            7.8514307737350464e-01 -8.2455873489379883e-01</leafValues></_>
        <_>
          <internalNodes>
            0 -1 1 -1.7890201881527901e-02</internalNodes>
          <leafValues>
            7.1668314933776855e-01 -8.8294965028762817e-01</leafValues></_></weakClassifiers></_>
    <!-- stage 2 -->
    <_>
      <maxWeakCount>1</maxWeakCount>
      <stageThreshold>9.5121949911117554e-01</stageThreshold>
      <weakClassifiers>
        <_>
          <internalNodes>
            0 -1 0 -6.7652113735675812e-02</internalNodes>
          <leafValues>
            -1. 9.5121949911117554e-01</leafValues></_></weakClassifiers></_>
    <!-- stage 3 -->
    <_>
      <maxWeakCount>2</maxWeakCount>
      <stageThreshold>1.7529219388961792e-02</stageThreshold>
      <weakClassifiers>
        <_>
          <internalNodes>
            0 -1 5 8.7855914607644081e-03</internalNodes>
          <leafValues>
            -8.7654322385787964e-01 7.9487180709838867e-01</leafValues></_>
        <_>
          <internalNodes>
            0 -1 9 1.1442366056144238e-02</internalNodes>
          <leafValues>
            -7.7734255790710449e-01 9.2970657348632813e-01</leafValues></_></weakClassifiers></_>
    <!-- stage 4 -->
    <_>
      <maxWeakCount>3</maxWeakCount>
      <stageThreshold>7.1284115314483643e-01</stageThreshold>
      <weakClassifiers>
        <_>
          <internalNodes>
            0 -1 4 2.3213952779769897e-02</internalNodes>
          <leafValues>
            -7.5555557012557983e-01 9.3333333730697632e-01</leafValues></_>
        <_>
          <internalNodes>
            0 -1 6 1.8713665194809437e-03</internalNodes>
          <leafValues>
            5.3566277027130127e-01 -1.</leafValues></_>
        <_>
          <internalNodes>
            0 -1 8 1.3795407488942146e-02</internalNodes>
          <leafValues>
            -6.7424452304840088e-01 9.3273395299911499e-01</leafValues></_></weakClassifiers></_></stages>
  <features>
    <_>
      <rects>
        <_>
          0 0 3 1 -1.</_>
        <_>
          1 0 1 1 2.</_></rects>
      <tilted>0</tilted></_>
    <_>
      <rects>
        <_>
          0 4 6 13 -1.</_>
        <_>
          3 4 3 13 2.</_></rects>
      <tilted>0</tilted></_>
    <_>
      <rects>
        <_>
          2 0 14 6 -1.</_>
        <_>
          2 3 14 3 2.</_></rects>
      <tilted>0</tilted></_>
    <_>
      <rects>
        <_>
          2 9 12 4 -1.</_>
        <_>
          8 9 6 4 2.</_></rects>
      <tilted>0</tilted></_>
    <_>
      <rects>
        <_>
          2 10 8 5 -1.</_>
        <_>
          6 10 4 5 2.</_></rects>
      <tilted>0</tilted></_>
    <_>
      <rects>
        <_>
          6 20 11 4 -1.</_>
        <_>
          6 22 11 2 2.</_></rects>
      <tilted>0</tilted></_>
    <_>
      <rects>
        <_>
          8 9 6 5 -1.</_>
        <_>
          11 9 3 5 2.</_></rects>
      <tilted>0</tilted></_>
    <_>
      <rects>
        <_>
          8 12 8 10 -1.</_>
        <_>
          8 17 8 5 2.</_></rects>
      <tilted>0</tilted></_>
    <_>
      <rects>
        <_>
          8 19 5 4 -1.</_>
        <_>
          8 21 5 2 2.</_></rects>
      <tilted>0</tilted></_>
    <_>
      <rects>
        <_>
          10 3 3 6 -1.</_>
        <_>
          10 6 3 3 2.</_></rects>
      <tilted>0</tilted></_>
    <_>
      <rects>
        <_>
          15 8 6 7 -1.</_>
        <_>
          18 8 3 7 2.</_></rects>
      <tilted>0</tilted></_>
    <_>
      <rects>
        <_>
          18 0 6 16 -1.</_>
        <_>
          21 0 3 16 2.</_></rects>
      <tilted>0</tilted></_></features></cascade>
</opencv_storage>
