<?xml version="1.0"?>
<opencv_storage>
<cascade>
  <stageType>BOOST</stageType>
  <featureType>HAAR</featureType>
  <height>24</height>
  <width>24</width>
  <stageParams>
    <boostType>GAB</boostType>
    <minHitRate>9.9500000476837158e-01</minHitRate>
    <maxFalseAlarm>9.9999997764825821e-03</maxFalseAlarm>
    <weightTrimRate>9.4999999999999996e-01</weightTrimRate>
    <maxDepth>1</maxDepth>
    <maxWeakCount>100</maxWeakCount></stageParams>
  <featureParams>
    <maxCatCount>0</maxCatCount>
    <featSize>1</featSize>
    <mode>BASIC</mode></featureParams>
  <stageNum>4</stageNum>
  <stages>
    <!-- stage 0 -->
    <_>
      <maxWeakCount>5</maxWeakCount>
      <stageThreshold>2.8688567876815796e-01</stageThreshold>
      <weakClassifiers>
        <_>
          <internalNodes>
            0 -1 13 2.3483199998736382e-02</internalNodes>
          <leafValues>
            -8.7500000000000000e-01 7.7777779102325439e-01</leafValues></_>
        <_>
          <internalNodes>
            0 -1 19 -2.9126608278602362e-03</internalNodes>
          <leafValues>
            5.1785379648208618e-01 -9.4548660516738892e-01</leafValues></_>
        <_>
          <internalNodes>
            0 -1 17 -1.3475262094289064e-03</internalNodes>
          <leafValues>
            4.8914495110511780e-01 -9.7509163618087769e-01</leafValues></_>
        <_>
          <internalNodes>
            0 -1 5 -1.2127155438065529e-02</internalNodes>
          <leafValues>
            8.1293714046478271e-01 -6.9167405366897583e-01</leafValues></_>
        <_>
          <internalNodes>
            0 -1 15 -5.0751520320773125e-03</internalNodes>
          <leafValues>
            8.5345888137817383e-01 -6.5805017948150635e-01</leafValues></_></weakClassifiers></_>
    <!-- stage 1 -->
    <_>
      <maxWeakCount>5</maxWeakCount>
      <stageThreshold>4.8011481761932373e-01</stageThreshold>
      <weakClassifiers>
        <_>
          <internalNodes>
            0 -1 4 -2.1194539964199066e-02</internalNodes>
          <leafValues>
            8.0487805604934692e-01 -8.0952382087707520e-01</leafValues></_>
        <_>
          <internalNodes>
            0 -1 14 -6.8399325013160706e-02</internalNodes>
          <leafValues>
            -1. 6.5796816349029541e-01</leafValues></_>
        <_>
          <internalNodes>
            0 -1 16 -1.4995912089943886e-02</internalNodes>
          <leafValues>
            8.0573815107345581e-01 -7.1729850769042969e-01</leafValues></_>
        <_>
          <internalNodes>
            0 -1 20 1.1517822276800871e-03</internalNodes>
          <leafValues>
            -6.9178003072738647e-01 6.9506210088729858e-01</leafValues></_>
        <_>
          <internalNodes>
            0 -1 1 -8.8961245492100716e-03</internalNodes>
          <leafValues>
            6.5390688180923462e-01 -8.0399703979492188e-01</leafValues></_></weakClassifiers></_>
    <!-- stage 2 -->
    <_>
      <maxWeakCount>6</maxWeakCount>
      <stageThreshold>2.3735189437866211e-01</stageThreshold>
      <weakClassifiers>
        <_>
          <internalNodes>
            0 -1 6 -5.0719332695007324e-01</internalNodes>
          <leafValues>
            -1. 3.4328359365463257e-01</leafValues></_>
        <_>
          <internalNodes>
            0 -1 18 -2.7578942477703094e-02</internalNodes>
          <leafValues>
            6.3447296619415283e-01 -7.1496599912643433e-01</leafValues></_>
        <_>
          <internalNodes>
            0 -1 10 -3.9221089333295822e-02</internalNodes>
          <leafValues>
            4.0031927824020386e-01 -9.6480047702789307e-01</leafValues></_>
        <_>
          <internalNodes>
            0 -1 3 -4.0645344415679574e-04</internalNodes>
          <leafValues>
            5.5063629150390625e-01 -8.2886797189712524e-01</leafValues></_>
        <_>
          <internalNodes>
            0 -1 7 1.4378702035173774e-03</internalNodes>
          <leafValues>
            6.6100686788558960e-01 -7.5111341476440430e-01</leafValues></_>
        <_>
          <internalNodes>
            0 -1 11 -1.0782979428768158e-02</internalNodes>
          <leafValues>
            -9.8188769817352295e-01 4.0919214487075806e-01</leafValues></_></weakClassifiers></_>
    <!-- stage 3 -->
    <_>
      <maxWeakCount>6</maxWeakCount>
      <stageThreshold>4.6742960810661316e-01</stageThreshold>
      <weakClassifiers>
        <_>
          <internalNodes>
            0 -1 12 -2.6719555258750916e-02</internalNodes>
          <leafValues>
            8.6666667461395264e-01 -6.4210528135299683e-01</leafValues></_>
        <_>
          <internalNodes>
            0 -1 2 -4.2145895957946777e-01</internalNodes>
          <leafValues>
            -1. 4.5978501439094543e-01</leafValues></_>
        <_>
          <internalNodes>
            0 -1 0 -1.9575709011405706e-03</internalNodes>
          <leafValues>
            3.5885915160179138e-01 -8.8599014282226563e-01</leafValues></_>
        <_>
          <internalNodes>
            0 -1 8 -2.1257925254758447e-04</internalNodes>
          <leafValues>
            6.4186596870422363e-01 -6.2330794334411621e-01</leafValues></_>
        <_>
          <internalNodes>
            0 -1 21 2.8972033760510385e-04</internalNodes>
          <leafValues>
            -7.6275616884231567e-01 6.9913381338119507e-01</leafValues></_>
        <_>
          <internalNodes>
            0 -1 9 1.7450873274356127e-03</internalNodes>
          <leafValues>
            4.1178092360496521e-01 -9.1777098178863525e-01</leafValues></_></weakClassifiers></_></stages>
  <features>
    <_>
      <rects>
        <_>
          0 0 4 20 -1.</_>
        <_>
          0 10 4 10 2.</_></rects>
      <tilted>0</tilted></_>
    <_>
      <rects>
        <_>
          0 1 6 10 -1.</_>
        <_>
          0 6 6 5 2.</_></rects>
      <tilted>0</tilted></_>
    <_>
      <rects>
        <_>
          0 5 1 18 -1.</_>
        <_>
          0 11 1 6 2.</_></rects>
      <tilted>0</tilted></_>
    <_>
      <rects>
        <_>
          0 6 4 1 -1.</_>
        <_>
          2 6 2 1 2.</_></rects>
      <tilted>0</tilted></_>
    <_>
      <rects>
        <_>
          0 17 12 6 -1.</_>
        <_>
          0 17 6 3 2.</_>
        <_>
          6 20 6 3 2.</_></rects>
      <tilted>0</tilted></_>
    <_>
      <rects>
        <_>
          0 18 6 4 -1.</_>
        <_>
          3 18 3 4 2.</_></rects>
      <tilted>0</tilted></_>
    <_>
      <rects>
        <_>
          0 20 24 1 -1.</_>
        <_>
          8 20 8 1 2.</_></rects>
      <tilted>0</tilted></_>
    <_>
      <rects>
        <_>
          4 3 8 12 -1.</_>
        <_>
          4 3 4 6 2.</_>
        <_>
          8 9 4 6 2.</_></rects>
      <tilted>0</tilted></_>
    <_>
      <rects>
        <_>
          5 3 2 6 -1.</_>
        <_>
          5 3 1 3 2.</_>
        <_>
          6 6 1 3 2.</_></rects>
      <tilted>0</tilted></_>
    <_>
      <rects>
        <_>
          6 16 15 2 -1.</_>
        <_>
          6 17 15 1 2.</_></rects>
      <tilted>0</tilted></_>
    <_>
      <rects>
        <_>
          7 8 16 7 -1.</_>
        <_>
          15 8 8 7 2.</_></rects>
      <tilted>0</tilted></_>
    <_>
      <rects>
        <_>
          8 3 6 14 -1.</_>
        <_>
          8 3 3 7 2.</_>
        <_>
          11 10 3 7 2.</_></rects>
      <tilted>0</tilted></_>
    <_>
      <rects>
        <_>
          8 19 8 4 -1.</_>
        <_>
          8 21 8 2 2.</_></rects>
      <tilted>0</tilted></_>
    <_>
      <rects>
        <_>
          9 16 14 8 -1.</_>
        <_>
          9 16 7 4 2.</_>
        <_>
          16 20 7 4 2.</_></rects>
      <tilted>0</tilted></_>
    <_>
      <rects>
        <_>
          9 18 3 1 -1.</_>
        <_>
          10 18 1 1 2.</_></rects>
      <tilted>0</tilted></_>
    <_>
      <rects>
        <_>
          11 15 8 6 -1.</_>
        <_>
          11 15 4 3 2.</_>
        <_>
          15 18 4 3 2.</_></rects>
      <tilted>0</tilted></_>
    <_>
      <rects>
        <_>
          13 1 10 6 -1.</_>
        <_>
          13 1 5 3 2.</_>
        <_>
          18 4 5 3 2.</_></rects>
      <tilted>0</tilted></_>
    <_>
      <rects>
        <_>
          16 0 5 4 -1.</_>
        <_>
          16 2 5 2 2.</_></rects>
      <tilted>0</tilted></_>
    <_>
      <rects>
        <_>
          17 8 6 8 -1.</_>
        <_>
          20 8 3 8 2.</_></rects>
      <tilted>0</tilted></_>
    <_>
      <rects>
        <_>
          18 0 6 18 -1.</_>
        <_>
          18 9 6 9 2.</_></rects>
      <tilted>0</tilted></_>
    <_>
      <rects>
        <_>
          19 3 2 10 -1.</_>
        <_>
          19 8 2 5 2.</_></rects>
      <tilted>0</tilted></_>
    <_>
      <rects>
        <_>
          22 6 2 4 -1.</_>
        <_>
          23 6 1 4 2.</_></rects>
      <tilted>0</tilted></_></features></cascade>
</opencv_storage>
