<?xml version="1.0"?>
<opencv_storage>
<cascade>
  <stageType>BOOST</stageType>
  <featureType>HAAR</featureType>
  <height>24</height>
  <width>24</width>
  <stageParams>
    <boostType>GAB</boostType>
    <minHitRate>8.9999997615814209e-01</minHitRate>
    <maxFalseAlarm>3.0000001192092896e-01</maxFalseAlarm>
    <weightTrimRate>9.4999999999999996e-01</weightTrimRate>
    <maxDepth>1</maxDepth>
    <maxWeakCount>100</maxWeakCount></stageParams>
  <featureParams>
    <maxCatCount>0</maxCatCount>
    <featSize>1</featSize>
    <mode>BASIC</mode></featureParams>
  <stageNum>7</stageNum>
  <stages>
    <!-- stage 0 -->
    <_>
      <maxWeakCount>2</maxWeakCount>
      <stageThreshold>-3.2864221930503845e-01</stageThreshold>
      <weakClassifiers>
        <_>
          <internalNodes>
            0 -1 9 2.3483199998736382e-02</internalNodes>
          <leafValues>
            -8.7500000000000000e-01 7.5000000000000000e-01</leafValues></_>
        <_>
          <internalNodes>
            0 -1 4 -8.8479332625865936e-03</internalNodes>
          <leafValues>
            5.4635775089263916e-01 -9.1974216699600220e-01</leafValues></_></weakClassifiers></_>
    <!-- stage 1 -->
    <_>
      <maxWeakCount>2</maxWeakCount>
      <stageThreshold>-2.5893777608871460e-02</stageThreshold>
      <weakClassifiers>
        <_>
          <internalNodes>
            0 -1 11 -1.5208419412374496e-02</internalNodes>
          <leafValues>
            8.4210526943206787e-01 -8.7804877758026123e-01</leafValues></_>
        <_>
          <internalNodes>
            0 -1 5 5.6382454931735992e-03</internalNodes>
          <leafValues>
            -7.1167343854904175e-01 8.5215502977371216e-01</leafValues></_></weakClassifiers></_>
    <!-- stage 2 -->
    <_>
      <maxWeakCount>3</maxWeakCount>
      <stageThreshold>1.5241603553295135e-01</stageThreshold>
      <weakClassifiers>
        <_>
          <internalNodes>
            0 -1 10 -1.5759358182549477e-02</internalNodes>
          <leafValues>
            7.8378379344940186e-01 -8.3132529258728027e-01</leafValues></_>
        <_>
          <internalNodes>
            0 -1 0 -7.7762551605701447e-02</internalNodes>
          <leafValues>
            -1. 4.8197075724601746e-01</leafValues></_>
        <_>
          <internalNodes>
            0 -1 7 -9.1957105323672295e-03</internalNodes>
          <leafValues>
            5.0177055597305298e-01 -1.</leafValues></_></weakClassifiers></_>
    <!-- stage 3 -->
    <_>
      <maxWeakCount>2</maxWeakCount>
      <stageThreshold>-3.1028890609741211e-01</stageThreshold>
      <weakClassifiers>
        <_>
          <internalNodes>
            0 -1 2 -2.7432246133685112e-02</internalNodes>
          <leafValues>
            8.7500000000000000e-01 -7.7272725105285645e-01</leafValues></_>
        <_>
          <internalNodes>
            0 -1 3 -5.1021420955657959e-01</internalNodes>
          <leafValues>
            -1. 4.6243837475776672e-01</leafValues></_></weakClassifiers></_>
    <!-- stage 4 -->
    <_>
      <maxWeakCount>2</maxWeakCount>
      <stageThreshold>-3.2472494989633560e-02</stageThreshold>
      <weakClassifiers>
        <_>
          <internalNodes>
            0 -1 6 -1.6625843942165375e-02</internalNodes>
          <leafValues>
            1. -7.0212763547897339e-01</leafValues></_>
        <_>
          <internalNodes>
            0 -1 1 -5.7847551070153713e-03</internalNodes>
          <leafValues>
            6.6965514421463013e-01 -8.4467589855194092e-01</leafValues></_></weakClassifiers></_>
    <!-- stage 5 -->
    <_>
      <maxWeakCount>2</maxWeakCount>
      <stageThreshold>-2.9417023062705994e-02</stageThreshold>
      <weakClassifiers>
        <_>
          <internalNodes>
            0 -1 13 -6.5643917769193649e-03</internalNodes>
          <leafValues>
            5.9090906381607056e-01 -8.6842107772827148e-01</leafValues></_>
        <_>
          <internalNodes>
            0 -1 8 4.3046504259109497e-02</internalNodes>
          <leafValues>
            -6.2032610177993774e-01 9.6009129285812378e-01</leafValues></_></weakClassifiers></_>
    <!-- stage 6 -->
    <_>
      <maxWeakCount>3</maxWeakCount>
      <stageThreshold>4.6771228313446045e-01</stageThreshold>
      <weakClassifiers>
        <_>
          <internalNodes>
            0 -1 14 2.7818204835057259e-02</internalNodes>
          <leafValues>
            -7.3333334922790527e-01 8.6666667461395264e-01</leafValues></_>
        <_>
          <internalNodes>
            0 -1 12 -9.6903029771056026e-05</internalNodes>
          <leafValues>
            5.0749588012695313e-01 -1.</leafValues></_>
        <_>
          <internalNodes>
            0 -1 15 -7.5664408504962921e-03</internalNodes>
          <leafValues>
            6.9354975223541260e-01 -7.2098684310913086e-01</leafValues></_></weakClassifiers></_></stages>
  <features>
    <_>
      <rects>
        <_>
          0 0 3 1 -1.</_>
        <_>
          1 0 1 1 2.</_></rects>
      <tilted>0</tilted></_>
    <_>
      <rects>
        <_>
          0 2 6 4 -1.</_>
        <_>
          3 2 3 4 2.</_></rects>
      <tilted>0</tilted></_>
    <_>
      <rects>
        <_>
          0 12 6 10 -1.</_>
        <_>
          0 12 3 5 2.</_>
        <_>
          3 17 3 5 2.</_></rects>
      <tilted>0</tilted></_>
    <_>
      <rects>
        <_>
          0 20 24 1 -1.</_>
        <_>
          8 20 8 1 2.</_></rects>
      <tilted>0</tilted></_>
    <_>
      <rects>
        <_>
          1 0 4 18 -1.</_>
        <_>
          1 9 4 9 2.</_></rects>
      <tilted>0</tilted></_>
    <_>
      <rects>
        <_>
          3 18 3 6 -1.</_>
        <_>
          3 21 3 3 2.</_></rects>
      <tilted>0</tilted></_>
    <_>
      <rects>
        <_>
          3 19 6 4 -1.</_>
        <_>
          3 19 3 2 2.</_>
        <_>
          6 21 3 2 2.</_></rects>
      <tilted>0</tilted></_>
    <_>
      <rects>
        <_>
          7 12 16 2 -1.</_>
        <_>
          15 12 8 2 2.</_></rects>
      <tilted>0</tilted></_>
    <_>
      <rects>
        <_>
          8 19 16 4 -1.</_>
        <_>
          8 19 8 2 2.</_>
        <_>
          16 21 8 2 2.</_></rects>
      <tilted>0</tilted></_>
    <_>
      <rects>
        <_>
          9 16 14 8 -1.</_>
        <_>
          9 16 7 4 2.</_>
        <_>
          16 20 7 4 2.</_></rects>
      <tilted>0</tilted></_>
    <_>
      <rects>
        <_>
          9 17 4 6 -1.</_>
        <_>
          9 20 4 3 2.</_></rects>
      <tilted>0</tilted></_>
    <_>
      <rects>
        <_>
          13 0 10 8 -1.</_>
        <_>
          13 0 5 4 2.</_>
        <_>
          18 4 5 4 2.</_></rects>
      <tilted>0</tilted></_>
    <_>
      <rects>
        <_>
          13 12 8 8 -1.</_>
        <_>
          13 16 8 4 2.</_></rects>
      <tilted>0</tilted></_>
    <_>
      <rects>
        <_>
          15 0 5 4 -1.</_>
        <_>
          15 2 5 2 2.</_></rects>
      <tilted>0</tilted></_>
    <_>
      <rects>
        <_>
          18 10 6 12 -1.</_>
        <_>
          18 10 3 6 2.</_>
        <_>
          21 16 3 6 2.</_></rects>
      <tilted>0</tilted></_>
    <_>
      <rects>
        <_>
          20 2 3 6 -1.</_>
        <_>
          20 5 3 3 2.</_></rects>
      <tilted>0</tilted></_></features></cascade>
</opencv_storage>
