<?xml version="1.0"?>
<opencv_storage>
<cascade>
  <stageType>BOOST</stageType>
  <featureType>HAAR</featureType>
  <height>24</height>
  <width>24</width>
  <stageParams>
    <boostType>GAB</boostType>
    <minHitRate>8.9999997615814209e-01</minHitRate>
    <maxFalseAlarm>1.5000000596046448e-01</maxFalseAlarm>
    <weightTrimRate>9.4999999999999996e-01</weightTrimRate>
    <maxDepth>1</maxDepth>
    <maxWeakCount>100</maxWeakCount></stageParams>
  <featureParams>
    <maxCatCount>0</maxCatCount>
    <featSize>1</featSize>
    <mode>BASIC</mode></featureParams>
  <stageNum>6</stageNum>
  <stages>
    <!-- stage 0 -->
    <_>
      <maxWeakCount>3</maxWeakCount>
      <stageThreshold>4.9120548367500305e-01</stageThreshold>
      <weakClassifiers>
        <_>
          <internalNodes>
            0 -1 6 2.3483199998736382e-02</internalNodes>
          <leafValues>
            -8.7500000000000000e-01 7.5000000000000000e-01</leafValues></_>
        <_>
          <internalNodes>
            0 -1 3 -8.8479332625865936e-03</internalNodes>
          <leafValues>
            5.4635775089263916e-01 -9.1974216699600220e-01</leafValues></_>
        <_>
          <internalNodes>
            0 -1 1 -1.2462216429412365e-02</internalNodes>
          <leafValues>
            8.1984770298004150e-01 -7.2265923023223877e-01</leafValues></_></weakClassifiers></_>
    <!-- stage 1 -->
    <_>
      <maxWeakCount>1</maxWeakCount>
      <stageThreshold>7.2093021869659424e-01</stageThreshold>
      <weakClassifiers>
        <_>
          <internalNodes>
            0 -1 8 -1.5558574348688126e-02</internalNodes>
          <leafValues>
            7.2093021869659424e-01 -9.2207789421081543e-01</leafValues></_></weakClassifiers></_>
    <!-- stage 2 -->
    <_>
      <maxWeakCount>1</maxWeakCount>
      <stageThreshold>8.6046510934829712e-01</stageThreshold>
      <weakClassifiers>
        <_>
          <internalNodes>
            0 -1 0 -7.0986218750476837e-02</internalNodes>
          <leafValues>
            -1. 8.6046510934829712e-01</leafValues></_></weakClassifiers></_>
    <!-- stage 3 -->
    <_>
      <maxWeakCount>2</maxWeakCount>
      <stageThreshold>-8.6635299026966095e-02</stageThreshold>
      <weakClassifiers>
        <_>
          <internalNodes>
            0 -1 4 1.1583550833165646e-02</internalNodes>
          <leafValues>
            -8.3333331346511841e-01 8.3333331346511841e-01</leafValues></_>
        <_>
          <internalNodes>
            0 -1 9 -8.0623328685760498e-03</internalNodes>
          <leafValues>
            7.4669802188873291e-01 -8.2586640119552612e-01</leafValues></_></weakClassifiers></_>
    <!-- stage 4 -->
    <_>
      <maxWeakCount>2</maxWeakCount>
      <stageThreshold>-7.7322475612163544e-02</stageThreshold>
      <weakClassifiers>
        <_>
          <internalNodes>
            0 -1 7 -6.3365721143782139e-03</internalNodes>
          <leafValues>
            9.3750000000000000e-01 -7.9545456171035767e-01</leafValues></_>
        <_>
          <internalNodes>
            0 -1 2 3.7436045240610838e-03</internalNodes>
          <leafValues>
            -7.6138788461685181e-01 7.1813207864761353e-01</leafValues></_></weakClassifiers></_>
    <!-- stage 5 -->
    <_>
      <maxWeakCount>1</maxWeakCount>
      <stageThreshold>7.1428573131561279e-01</stageThreshold>
      <weakClassifiers>
        <_>
          <internalNodes>
            0 -1 5 -2.0180908963084221e-02</internalNodes>
          <leafValues>
            7.1428573131561279e-01 -8.9743590354919434e-01</leafValues></_></weakClassifiers></_></stages>
  <features>
    <_>
      <rects>
        <_>
          0 0 3 1 -1.</_>
        <_>
          1 0 1 1 2.</_></rects>
      <tilted>0</tilted></_>
    <_>
      <rects>
        <_>
          0 16 4 7 -1.</_>
        <_>
          2 16 2 7 2.</_></rects>
      <tilted>0</tilted></_>
    <_>
      <rects>
        <_>
          0 20 7 4 -1.</_>
        <_>
          0 22 7 2 2.</_></rects>
      <tilted>0</tilted></_>
    <_>
      <rects>
        <_>
          1 0 4 18 -1.</_>
        <_>
          1 9 4 9 2.</_></rects>
      <tilted>0</tilted></_>
    <_>
      <rects>
        <_>
          1 2 6 8 -1.</_>
        <_>
          1 2 3 4 2.</_>
        <_>
          4 6 3 4 2.</_></rects>
      <tilted>0</tilted></_>
    <_>
      <rects>
        <_>
          1 20 8 3 -1.</_>
        <_>
          5 20 4 3 2.</_></rects>
      <tilted>0</tilted></_>
    <_>
      <rects>
        <_>
          9 16 14 8 -1.</_>
        <_>
          9 16 7 4 2.</_>
        <_>
          16 20 7 4 2.</_></rects>
      <tilted>0</tilted></_>
    <_>
      <rects>
        <_>
          9 19 2 4 -1.</_>
        <_>
          9 21 2 2 2.</_></rects>
      <tilted>0</tilted></_>
    <_>
      <rects>
        <_>
          13 0 10 8 -1.</_>
        <_>
          13 0 5 4 2.</_>
        <_>
          18 4 5 4 2.</_></rects>
      <tilted>0</tilted></_>
    <_>
      <rects>
        <_>
          19 2 4 10 -1.</_>
        <_>
          19 2 2 5 2.</_>
        <_>
          21 7 2 5 2.</_></rects>
      <tilted>0</tilted></_></features></cascade>
</opencv_storage>
