<?xml version="1.0"?>
<opencv_storage>
<stage1>
  <maxWeakCount>5</maxWeakCount>
  <stageThreshold>4.8011481761932373e-01</stageThreshold>
  <weakClassifiers>
    <_>
      <internalNodes>
        0 -1 12355 -2.1194539964199066e-02</internalNodes>
      <leafValues>
        8.0487805604934692e-01 -8.0952382087707520e-01</leafValues></_>
    <_>
      <internalNodes>
        0 -1 106277 -6.8399325013160706e-02</internalNodes>
      <leafValues>
        -1. 6.5796816349029541e-01</leafValues></_>
    <_>
      <internalNodes>
        0 -1 128800 -1.4995912089943886e-02</internalNodes>
      <leafValues>
        8.0573815107345581e-01 -7.1729850769042969e-01</leafValues></_>
    <_>
      <internalNodes>
        0 -1 155873 1.1517822276800871e-03</internalNodes>
      <leafValues>
        -6.9178003072738647e-01 6.9506210088729858e-01</leafValues></_>
    <_>
      <internalNodes>
        0 -1 1500 -8.8961245492100716e-03</internalNodes>
      <leafValues>
        6.5390688180923462e-01 -8.0399703979492188e-01</leafValues></_></weakClassifiers></stage1>
</opencv_storage>
